digraph Tree {
node [shape=box, style="filled, rounded", color="black", fontname="helvetica"] ;
edge [fontname="helvetica"] ;
0 [label="Shell weight <= -0.806\ngini = 0.668\nsamples = 2506\nvalue = [494, 1147, 710, 155]\nclass = 8-10 years", fillcolor="#d2f9cf"] ;
1 [label="Shell weight <= -1.247\ngini = 0.469\nsamples = 604\nvalue = [407.0, 165.0, 31.0, 1.0]\nclass = 0-7 years", fillcolor="#f1ba92"] ;
0 -> 1 [labeldistance=2.5, labelangle=45, headlabel="True"] ;
2 [label="Diameter <= -1.924\ngini = 0.179\nsamples = 244\nvalue = [220, 22, 2, 0]\nclass = 0-7 years", fillcolor="#e88f4e"] ;
1 -> 2 ;
3 [label="Shell weight <= -1.55\ngini = 0.035\nsamples = 113\nvalue = [111, 2, 0, 0]\nclass = 0-7 years", fillcolor="#e5833d"] ;
2 -> 3 ;
4 [label="gini = 0.0\nsamples = 64\nvalue = [64, 0, 0, 0]\nclass = 0-7 years", fillcolor="#e58139"] ;
3 -> 4 ;
5 [label="Whole weight <= -1.539\ngini = 0.078\nsamples = 49\nvalue = [47.0, 2.0, 0.0, 0.0]\nclass = 0-7 years", fillcolor="#e68641"] ;
3 -> 5 ;
6 [label="gini = 0.0\nsamples = 1\nvalue = [0, 1, 0, 0]\nclass = 8-10 years", fillcolor="#47e539"] ;
5 -> 6 ;
7 [label="Schucked weight <= -1.474\ngini = 0.041\nsamples = 48\nvalue = [47, 1, 0, 0]\nclass = 0-7 years", fillcolor="#e6843d"] ;
5 -> 7 ;
8 [label="gini = 0.375\nsamples = 4\nvalue = [3, 1, 0, 0]\nclass = 0-7 years", fillcolor="#eeab7b"] ;
7 -> 8 ;
9 [label="gini = 0.0\nsamples = 44\nvalue = [44, 0, 0, 0]\nclass = 0-7 years", fillcolor="#e58139"] ;
7 -> 9 ;
10 [label="M <= 0.5\ngini = 0.284\nsamples = 131\nvalue = [109, 20, 2, 0]\nclass = 0-7 years", fillcolor="#ea9a60"] ;
2 -> 10 ;
11 [label="Schucked weight <= -1.379\ngini = 0.204\nsamples = 115\nvalue = [102, 11, 2, 0]\nclass = 0-7 years", fillcolor="#e89152"] ;
10 -> 11 ;
12 [label="Whole weight <= -1.422\ngini = 0.459\nsamples = 14\nvalue = [9, 5, 0, 0]\nclass = 0-7 years", fillcolor="#f3c7a7"] ;
11 -> 12 ;
13 [label="gini = 0.18\nsamples = 10\nvalue = [9, 1, 0, 0]\nclass = 0-7 years", fillcolor="#e88f4f"] ;
12 -> 13 ;
14 [label="gini = 0.0\nsamples = 4\nvalue = [0, 4, 0, 0]\nclass = 8-10 years", fillcolor="#47e539"] ;
12 -> 14 ;
15 [label="Length <= -1.981\ngini = 0.148\nsamples = 101\nvalue = [93, 6, 2, 0]\nclass = 0-7 years", fillcolor="#e78c4a"] ;
11 -> 15 ;
16 [label="gini = 0.0\nsamples = 1\nvalue = [0, 1, 0, 0]\nclass = 8-10 years", fillcolor="#47e539"] ;
15 -> 16 ;
17 [label="gini = 0.132\nsamples = 100\nvalue = [93, 5, 2, 0]\nclass = 0-7 years", fillcolor="#e78a48"] ;
15 -> 17 ;
18 [label="Diameter <= -1.615\ngini = 0.492\nsamples = 16\nvalue = [7, 9, 0, 0]\nclass = 8-10 years", fillcolor="#d6f9d3"] ;
10 -> 18 ;
19 [label="Whole weight <= -1.443\ngini = 0.346\nsamples = 9\nvalue = [7, 2, 0, 0]\nclass = 0-7 years", fillcolor="#eca572"] ;
18 -> 19 ;
20 [label="gini = 0.0\nsamples = 2\nvalue = [0, 2, 0, 0]\nclass = 8-10 years", fillcolor="#47e539"] ;
19 -> 20 ;
21 [label="gini = 0.0\nsamples = 7\nvalue = [7, 0, 0, 0]\nclass = 0-7 years", fillcolor="#e58139"] ;
19 -> 21 ;
22 [label="gini = 0.0\nsamples = 7\nvalue = [0, 7, 0, 0]\nclass = 8-10 years", fillcolor="#47e539"] ;
18 -> 22 ;
23 [label="I <= 0.5\ngini = 0.566\nsamples = 360\nvalue = [187.0, 143.0, 29.0, 1.0]\nclass = 0-7 years", fillcolor="#fae5d7"] ;
1 -> 23 ;
24 [label="Diameter <= -1.41\ngini = 0.59\nsamples = 110\nvalue = [29.0, 61.0, 20.0, 0.0]\nclass = 8-10 years", fillcolor="#b6f5b1"] ;
23 -> 24 ;
25 [label="Whole weight <= -1.286\ngini = 0.512\nsamples = 11\nvalue = [7, 3, 1, 0]\nclass = 0-7 years", fillcolor="#f2c09c"] ;
24 -> 25 ;
26 [label="Shell weight <= -1.204\ngini = 0.5\nsamples = 2\nvalue = [0, 1, 1, 0]\nclass = 8-10 years", fillcolor="#ffffff"] ;
25 -> 26 ;
27 [label="gini = 0.0\nsamples = 1\nvalue = [0, 1, 0, 0]\nclass = 8-10 years", fillcolor="#47e539"] ;
26 -> 27 ;
28 [label="gini = 0.0\nsamples = 1\nvalue = [0, 0, 1, 0]\nclass = 11-15 years", fillcolor="#399de5"] ;
26 -> 28 ;
29 [label="M <= 0.5\ngini = 0.346\nsamples = 9\nvalue = [7, 2, 0, 0]\nclass = 0-7 years", fillcolor="#eca572"] ;
25 -> 29 ;
30 [label="gini = 0.0\nsamples = 1\nvalue = [0, 1, 0, 0]\nclass = 8-10 years", fillcolor="#47e539"] ;
29 -> 30 ;
31 [label="gini = 0.219\nsamples = 8\nvalue = [7, 1, 0, 0]\nclass = 0-7 years", fillcolor="#e99355"] ;
29 -> 31 ;
32 [label="Whole weight <= -1.052\ngini = 0.571\nsamples = 99\nvalue = [22, 58, 19, 0]\nclass = 8-10 years", fillcolor="#a9f3a2"] ;
24 -> 32 ;
33 [label="Schucked weight <= -1.194\ngini = 0.407\nsamples = 43\nvalue = [3, 32, 8, 0]\nclass = 8-10 years", fillcolor="#81ed77"] ;
32 -> 33 ;
34 [label="gini = 0.0\nsamples = 15\nvalue = [0, 15, 0, 0]\nclass = 8-10 years", fillcolor="#47e539"] ;
33 -> 34 ;
35 [label="gini = 0.538\nsamples = 28\nvalue = [3, 17, 8, 0]\nclass = 8-10 years", fillcolor="#acf3a6"] ;
33 -> 35 ;
36 [label="Length <= -1.155\ngini = 0.631\nsamples = 56\nvalue = [19, 26, 11, 0]\nclass = 8-10 years", fillcolor="#dcfada"] ;
32 -> 36 ;
37 [label="gini = 0.0\nsamples = 4\nvalue = [4, 0, 0, 0]\nclass = 0-7 years", fillcolor="#e58139"] ;
36 -> 37 ;
38 [label="gini = 0.622\nsamples = 52\nvalue = [15.0, 26.0, 11.0, 0.0]\nclass = 8-10 years", fillcolor="#c8f7c4"] ;
36 -> 38 ;
39 [label="Height <= -0.983\ngini = 0.492\nsamples = 250\nvalue = [158, 82, 9, 1]\nclass = 0-7 years", fillcolor="#f3c6a5"] ;
23 -> 39 ;
40 [label="Diameter <= -0.742\ngini = 0.282\nsamples = 78\nvalue = [65, 12, 1, 0]\nclass = 0-7 years", fillcolor="#ea9a60"] ;
39 -> 40 ;
41 [label="Schucked weight <= -1.061\ngini = 0.234\nsamples = 75\nvalue = [65, 9, 1, 0]\nclass = 0-7 years", fillcolor="#e99457"] ;
40 -> 41 ;
42 [label="gini = 0.09\nsamples = 43\nvalue = [41, 1, 1, 0]\nclass = 0-7 years", fillcolor="#e68742"] ;
41 -> 42 ;
43 [label="gini = 0.375\nsamples = 32\nvalue = [24, 8, 0, 0]\nclass = 0-7 years", fillcolor="#eeab7b"] ;
41 -> 43 ;
44 [label="gini = 0.0\nsamples = 3\nvalue = [0, 3, 0, 0]\nclass = 8-10 years", fillcolor="#47e539"] ;
40 -> 44 ;
45 [label="Schucked weight <= -1.274\ngini = 0.54\nsamples = 172\nvalue = [93, 70, 8, 1]\nclass = 0-7 years", fillcolor="#f9e3d2"] ;
39 -> 45 ;
46 [label="gini = 0.0\nsamples = 4\nvalue = [0, 4, 0, 0]\nclass = 8-10 years", fillcolor="#47e539"] ;
45 -> 46 ;
47 [label="Height <= -0.868\ngini = 0.537\nsamples = 168\nvalue = [93, 66, 8, 1]\nclass = 0-7 years", fillcolor="#f8decb"] ;
45 -> 47 ;
48 [label="gini = 0.477\nsamples = 59\nvalue = [39, 17, 3, 0]\nclass = 0-7 years", fillcolor="#f1bd97"] ;
47 -> 48 ;
49 [label="gini = 0.55\nsamples = 109\nvalue = [54, 49, 5, 1]\nclass = 0-7 years", fillcolor="#fdf4ee"] ;
47 -> 49 ;
50 [label="Shell weight <= 1.067\ngini = 0.597\nsamples = 1902\nvalue = [87, 982, 679, 154]\nclass = 8-10 years", fillcolor="#d1f9ce"] ;
0 -> 50 [labeldistance=2.5, labelangle=-45, headlabel="False"] ;
51 [label="Shell weight <= -0.015\ngini = 0.559\nsamples = 1538\nvalue = [86, 891, 487, 74]\nclass = 8-10 years", fillcolor="#b8f5b3"] ;
50 -> 51 ;
52 [label="Schucked weight <= -0.21\ngini = 0.522\nsamples = 669\nvalue = [75, 430, 152, 12]\nclass = 8-10 years", fillcolor="#9cf195"] ;
51 -> 52 ;
53 [label="I <= 0.5\ngini = 0.569\nsamples = 467\nvalue = [53, 272, 131, 11]\nclass = 8-10 years", fillcolor="#b2f4ac"] ;
52 -> 53 ;
54 [label="Shell weight <= -0.467\ngini = 0.614\nsamples = 254\nvalue = [26, 119, 100, 9]\nclass = 8-10 years", fillcolor="#e8fce7"] ;
53 -> 54 ;
55 [label="gini = 0.578\nsamples = 137\nvalue = [22, 80, 32, 3]\nclass = 8-10 years", fillcolor="#abf3a4"] ;
54 -> 55 ;
56 [label="gini = 0.547\nsamples = 117\nvalue = [4, 39, 68, 6]\nclass = 11-15 years", fillcolor="#b5dbf5"] ;
54 -> 56 ;
57 [label="Diameter <= -0.588\ngini = 0.447\nsamples = 213\nvalue = [27.0, 153.0, 31.0, 2.0]\nclass = 8-10 years", fillcolor="#84ee7a"] ;
53 -> 57 ;
58 [label="gini = 0.684\nsamples = 24\nvalue = [8, 9, 6, 1]\nclass = 8-10 years", fillcolor="#f4fdf3"] ;
57 -> 58 ;
59 [label="gini = 0.392\nsamples = 189\nvalue = [19, 144, 25, 1]\nclass = 8-10 years", fillcolor="#79ec6f"] ;
57 -> 59 ;
60 [label="Shell weight <= -0.35\ngini = 0.366\nsamples = 202\nvalue = [22, 158, 21, 1]\nclass = 8-10 years", fillcolor="#74eb69"] ;
52 -> 60 ;
61 [label="Whole weight <= 0.46\ngini = 0.554\nsamples = 51\nvalue = [15, 30, 6, 0]\nclass = 8-10 years", fillcolor="#b2f4ac"] ;
60 -> 61 ;
62 [label="gini = 0.519\nsamples = 46\nvalue = [15, 28, 3, 0]\nclass = 8-10 years", fillcolor="#b2f4ac"] ;
61 -> 62 ;
63 [label="gini = 0.48\nsamples = 5\nvalue = [0, 2, 3, 0]\nclass = 11-15 years", fillcolor="#bddef6"] ;
61 -> 63 ;
64 [label="Schucked weight <= 0.305\ngini = 0.269\nsamples = 151\nvalue = [7.0, 128.0, 15.0, 1.0]\nclass = 8-10 years", fillcolor="#66e95a"] ;
60 -> 64 ;
65 [label="gini = 0.333\nsamples = 112\nvalue = [6, 90, 15, 1]\nclass = 8-10 years", fillcolor="#71eb66"] ;
64 -> 65 ;
66 [label="gini = 0.05\nsamples = 39\nvalue = [1, 38, 0, 0]\nclass = 8-10 years", fillcolor="#4ce63e"] ;
64 -> 66 ;
67 [label="Schucked weight <= 0.148\ngini = 0.565\nsamples = 869\nvalue = [11, 461, 335, 62]\nclass = 8-10 years", fillcolor="#d4f9d0"] ;
51 -> 67 ;
68 [label="Height <= 0.516\ngini = 0.617\nsamples = 274\nvalue = [2, 88, 137, 47]\nclass = 11-15 years", fillcolor="#cbe5f8"] ;
67 -> 68 ;
69 [label="Schucked weight <= -0.227\ngini = 0.615\nsamples = 197\nvalue = [2.0, 77.0, 91.0, 27.0]\nclass = 11-15 years", fillcolor="#e8f4fc"] ;
68 -> 69 ;
70 [label="gini = 0.603\nsamples = 63\nvalue = [2, 11, 35, 15]\nclass = 11-15 years", fillcolor="#acd6f4"] ;
69 -> 70 ;
71 [label="gini = 0.575\nsamples = 134\nvalue = [0, 66, 56, 12]\nclass = 8-10 years", fillcolor="#e7fce6"] ;
69 -> 71 ;
72 [label="Viscera weight <= 0.462\ngini = 0.555\nsamples = 77\nvalue = [0.0, 11.0, 46.0, 20.0]\nclass = 11-15 years", fillcolor="#a5d2f3"] ;
68 -> 72 ;
73 [label="gini = 0.597\nsamples = 59\nvalue = [0.0, 9.0, 31.0, 19.0]\nclass = 11-15 years", fillcolor="#c4e2f7"] ;
72 -> 73 ;
74 [label="gini = 0.29\nsamples = 18\nvalue = [0, 2, 15, 1]\nclass = 11-15 years", fillcolor="#5eafea"] ;
72 -> 74 ;
75 [label="Shell weight <= 0.384\ngini = 0.495\nsamples = 595\nvalue = [9, 373, 198, 15]\nclass = 8-10 years", fillcolor="#aef4a8"] ;
67 -> 75 ;
76 [label="Schucked weight <= 0.37\ngini = 0.378\nsamples = 201\nvalue = [7, 154, 37, 3]\nclass = 8-10 years", fillcolor="#7cec72"] ;
75 -> 76 ;
77 [label="gini = 0.545\nsamples = 70\nvalue = [4, 42, 21, 3]\nclass = 8-10 years", fillcolor="#b0f4aa"] ;
76 -> 77 ;
78 [label="gini = 0.254\nsamples = 131\nvalue = [3, 112, 16, 0]\nclass = 8-10 years", fillcolor="#65e95a"] ;
76 -> 78 ;
79 [label="Schucked weight <= 0.875\ngini = 0.523\nsamples = 394\nvalue = [2.0, 219.0, 161.0, 12.0]\nclass = 8-10 years", fillcolor="#d1f9ce"] ;
75 -> 79 ;
80 [label="gini = 0.544\nsamples = 232\nvalue = [0, 112, 109, 11]\nclass = 8-10 years", fillcolor="#fbfefa"] ;
79 -> 80 ;
81 [label="gini = 0.461\nsamples = 162\nvalue = [2.0, 107.0, 52.0, 1.0]\nclass = 8-10 years", fillcolor="#a3f29c"] ;
79 -> 81 ;
82 [label="Schucked weight <= 1.261\ngini = 0.611\nsamples = 364\nvalue = [1, 91, 192, 80]\nclass = 11-15 years", fillcolor="#b6dbf5"] ;
50 -> 82 ;
83 [label="Shell weight <= 2.026\ngini = 0.641\nsamples = 168\nvalue = [1, 33, 73, 61]\nclass = 11-15 years", fillcolor="#e9f4fc"] ;
82 -> 83 ;
84 [label="Schucked weight <= 0.584\ngini = 0.636\nsamples = 143\nvalue = [1, 33, 69, 40]\nclass = 11-15 years", fillcolor="#c7e3f8"] ;
83 -> 84 ;
85 [label="Height <= 1.324\ngini = 0.54\nsamples = 42\nvalue = [0, 2, 22, 18]\nclass = 11-15 years", fillcolor="#deeffb"] ;
84 -> 85 ;
86 [label="gini = 0.526\nsamples = 38\nvalue = [0, 2, 22, 14]\nclass = 11-15 years", fillcolor="#bddef6"] ;
85 -> 86 ;
87 [label="gini = 0.0\nsamples = 4\nvalue = [0, 0, 0, 4]\nclass = >15 years", fillcolor="#d739e5"] ;
85 -> 87 ;
88 [label="Shell weight <= 1.211\ngini = 0.642\nsamples = 101\nvalue = [1, 31, 47, 22]\nclass = 11-15 years", fillcolor="#d2e9f9"] ;
84 -> 88 ;
89 [label="gini = 0.574\nsamples = 31\nvalue = [0, 16, 12, 3]\nclass = 8-10 years", fillcolor="#d8fad5"] ;
88 -> 89 ;
90 [label="gini = 0.63\nsamples = 70\nvalue = [1, 15, 35, 19]\nclass = 11-15 years", fillcolor="#c1e0f7"] ;
88 -> 90 ;
91 [label="Viscera weight <= 1.595\ngini = 0.269\nsamples = 25\nvalue = [0, 0, 4, 21]\nclass = >15 years", fillcolor="#df5fea"] ;
83 -> 91 ;
92 [label="Shell weight <= 2.916\ngini = 0.095\nsamples = 20\nvalue = [0, 0, 1, 19]\nclass = >15 years", fillcolor="#d943e6"] ;
91 -> 92 ;
93 [label="gini = 0.0\nsamples = 15\nvalue = [0, 0, 0, 15]\nclass = >15 years", fillcolor="#d739e5"] ;
92 -> 93 ;
94 [label="gini = 0.32\nsamples = 5\nvalue = [0, 0, 1, 4]\nclass = >15 years", fillcolor="#e16aec"] ;
92 -> 94 ;
95 [label="Viscera weight <= 1.98\ngini = 0.48\nsamples = 5\nvalue = [0, 0, 3, 2]\nclass = 11-15 years", fillcolor="#bddef6"] ;
91 -> 95 ;
96 [label="gini = 0.0\nsamples = 3\nvalue = [0, 0, 3, 0]\nclass = 11-15 years", fillcolor="#399de5"] ;
95 -> 96 ;
97 [label="gini = 0.0\nsamples = 2\nvalue = [0, 0, 0, 2]\nclass = >15 years", fillcolor="#d739e5"] ;
95 -> 97 ;
98 [label="Shell weight <= 2.994\ngini = 0.534\nsamples = 196\nvalue = [0.0, 58.0, 119.0, 19.0]\nclass = 11-15 years", fillcolor="#a7d4f4"] ;
82 -> 98 ;
99 [label="Shell weight <= 1.429\ngini = 0.5\nsamples = 184\nvalue = [0, 58, 116, 10]\nclass = 11-15 years", fillcolor="#a4d2f3"] ;
98 -> 99 ;
100 [label="Length <= 1.321\ngini = 0.514\nsamples = 64\nvalue = [0, 30, 33, 1]\nclass = 11-15 years", fillcolor="#eef6fd"] ;
99 -> 100 ;
101 [label="gini = 0.481\nsamples = 41\nvalue = [0.0, 14.0, 26.0, 1.0]\nclass = 11-15 years", fillcolor="#a7d3f3"] ;
100 -> 101 ;
102 [label="gini = 0.423\nsamples = 23\nvalue = [0, 16, 7, 0]\nclass = 8-10 years", fillcolor="#98f090"] ;
100 -> 102 ;
103 [label="Schucked weight <= 1.991\ngini = 0.462\nsamples = 120\nvalue = [0, 28, 83, 9]\nclass = 11-15 years", fillcolor="#89c4ef"] ;
99 -> 103 ;
104 [label="gini = 0.312\nsamples = 61\nvalue = [0, 5, 50, 6]\nclass = 11-15 years", fillcolor="#61b1ea"] ;
103 -> 104 ;
105 [label="gini = 0.533\nsamples = 59\nvalue = [0, 23, 33, 3]\nclass = 11-15 years", fillcolor="#c8e4f8"] ;
103 -> 105 ;
106 [label="Diameter <= 1.929\ngini = 0.375\nsamples = 12\nvalue = [0, 0, 3, 9]\nclass = >15 years", fillcolor="#e47bee"] ;
98 -> 106 ;
107 [label="Length <= 1.448\ngini = 0.18\nsamples = 10\nvalue = [0, 0, 1, 9]\nclass = >15 years", fillcolor="#db4fe8"] ;
106 -> 107 ;
108 [label="gini = 0.5\nsamples = 2\nvalue = [0, 0, 1, 1]\nclass = 11-15 years", fillcolor="#ffffff"] ;
107 -> 108 ;
109 [label="gini = 0.0\nsamples = 8\nvalue = [0, 0, 0, 8]\nclass = >15 years", fillcolor="#d739e5"] ;
107 -> 109 ;
110 [label="gini = 0.0\nsamples = 2\nvalue = [0, 0, 2, 0]\nclass = 11-15 years", fillcolor="#399de5"] ;
106 -> 110 ;
}